digraph Tree {
node [shape=box, style="rounded", color="black", fontname=helvetica] ;
edge [fontname=helvetica] ;
0 [label="average <= 7.5\nmse = 126.9\nsamples = 472\nvalue = 19.3"] ;
1 [label="average <= 2.5\nmse = 51.4\nsamples = 144\nvalue = 5.5"] ;
0 -> 1 [labeldistance=2.5, labelangle=45, headlabel="True"] ;
2 [label="temp_2 <= 6.5\nmse = 28.6\nsamples = 90\nvalue = 1.3"] ;
1 -> 2 ;
3 [label="mse = 23.4\nsamples = 67\nvalue = -0.1"] ;
2 -> 3 ;
4 [label="mse = 17.0\nsamples = 23\nvalue = 6.0"] ;
2 -> 4 ;
5 [label="temp_2 <= 15.5\nmse = 24.3\nsamples = 54\nvalue = 11.4"] ;
1 -> 5 ;
6 [label="mse = 16.8\nsamples = 38\nvalue = 9.4"] ;
5 -> 6 ;
7 [label="mse = 18.5\nsamples = 16\nvalue = 14.8"] ;
5 -> 7 ;
8 [label="average <= 19.5\nmse = 41.9\nsamples = 328\nvalue = 25.3"] ;
0 -> 8 [labeldistance=2.5, labelangle=-45, headlabel="False"] ;
9 [label="average <= 11.5\nmse = 28.4\nsamples = 169\nvalue = 21.1"] ;
8 -> 9 ;
10 [label="mse = 30.5\nsamples = 48\nvalue = 16.7"] ;
9 -> 10 ;
11 [label="mse = 18.7\nsamples = 121\nvalue = 22.6"] ;
9 -> 11 ;
12 [label="average <= 23.5\nmse = 15.1\nsamples = 159\nvalue = 30.0"] ;
8 -> 12 ;
13 [label="mse = 12.1\nsamples = 71\nvalue = 27.5"] ;
12 -> 13 ;
14 [label="mse = 7.9\nsamples = 88\nvalue = 32.1"] ;
12 -> 14 ;
}